digraph Tree {
node [shape=box, style="filled, rounded", color="black", fontname=helvetica] ;
edge [fontname=helvetica] ;
rankdir=LR ;
0 [label="City_Castellammare di Stabia <= 2.39\ngini = 0.96\nsamples = 60336\nvalue = [3713, 3661, 3797, 3658, 3578, 3586, 3667, 3694, 3505\n3722, 3593, 3546, 3718, 3752, 3745, 3778, 3563, 3677\n3672, 3623, 3689, 3726, 3805, 3561, 3768, 3625]\nclass = 587", fillcolor="#e5399200"] ;
1 [label="sensor_ip-10-0-37-102 <= 2.34\ngini = 0.96\nsamples = 57992\nvalue = [3713, 3661, 3797, 3658, 3574, 3586, 3667, 3694, 3505\n3722, 3593, 3546, 3718, 0, 3745, 3778, 3563, 3677\n3672, 3623, 3689, 3726, 3805, 3561, 3768, 3625]\nclass = 587", fillcolor="#e5399200"] ;
0 -> 1 [labeldistance=2.5, labelangle=-45, headlabel="True"] ;
2 [label="src_ip_66.231.200.143 <= 2.4\ngini = 0.96\nsamples = 55540\nvalue = [3713, 3661, 3797, 3467, 3533, 3586, 3667, 3694, 3505\n3722, 3593, 3546, 3718, 0, 3745, 3778, 3563, 3677, 0\n3623, 3689, 3726, 3805, 3561, 3768, 3625]\nclass = 587", fillcolor="#e5399200"] ;
1 -> 2 ;
3 [label="src_ip_113.190.218.216 <= 4.26\ngini = 0.96\nsamples = 53217\nvalue = [3713, 3661, 3797, 3467, 3533, 3586, 3667, 3694, 3505\n3722, 3593, 3546, 0, 0, 3745, 3778, 3563, 3677, 0\n3623, 3689, 3726, 3805, 3561, 3768, 3625]\nclass = 587", fillcolor="#e5399200"] ;
2 -> 3 ;
4 [label="src_ip_193.124.178.33 <= 35.42\ngini = 0.96\nsamples = 52409\nvalue = [3713, 3661, 3797, 3467, 3533, 3586, 3667, 3694, 3505\n3722, 3593, 3546, 0, 0, 3745, 2505, 3563, 3677, 0\n3623, 3689, 3726, 3805, 3561, 3768, 3619]\nclass = 587", fillcolor="#e5399200"] ;
3 -> 4 ;
5 [label="src_ip_176.61.30.112 <= 2.39\ngini = 0.96\nsamples = 52400\nvalue = [3713, 3661, 3797, 3466, 3533, 3586, 3667, 3694, 3505\n3722, 3593, 3546, 0, 0, 3745, 2505, 3563, 3677, 0\n3623, 3689, 3726, 3805, 3561, 3768, 3606]\nclass = 587", fillcolor="#e5399200"] ;
4 -> 5 ;
6 [label="(...)", fillcolor="#C0C0C0"] ;
5 -> 6 ;
2305 [label="(...)", fillcolor="#C0C0C0"] ;
5 -> 2305 ;
2306 [label="sensor_heisenberg-collector-20 <= 10.08\ngini = 0.13\nsamples = 9\nvalue = [0, 0, 0, 1, 0, 0, 0, 0, 0, 0, 0, 0, 0, 0\n0, 0, 0, 0, 0, 0, 0, 0, 0, 0, 0, 13]\nclass = 80", fillcolor="#e55839eb"] ;
4 -> 2306 ;
2307 [label="(...)", fillcolor="#C0C0C0"] ;
2306 -> 2307 ;
2310 [label="(...)", fillcolor="#C0C0C0"] ;
2306 -> 2310 ;
2311 [label="sensor_hesienberg-collector-13 <= 3.58\ngini = 0.01\nsamples = 808\nvalue = [0, 0, 0, 0, 0, 0, 0, 0, 0, 0, 0, 0, 0, 0\n0, 1273, 0, 0, 0, 0, 0, 0, 0, 0, 0, 6]\nclass = 443", fillcolor="#3950e5fe"] ;
3 -> 2311 ;
2312 [label="gini = 0.0\nsamples = 4\nvalue = [0, 0, 0, 0, 0, 0, 0, 0, 0, 0, 0, 0, 0, 0\n0, 0, 0, 0, 0, 0, 0, 0, 0, 0, 0, 6]\nclass = 80", fillcolor="#e55839ff"] ;
2311 -> 2312 ;
2313 [label="gini = 0.0\nsamples = 804\nvalue = [0, 0, 0, 0, 0, 0, 0, 0, 0, 0, 0, 0, 0, 0\n0, 1273, 0, 0, 0, 0, 0, 0, 0, 0, 0, 0]\nclass = 443", fillcolor="#3950e5ff"] ;
2311 -> 2313 ;
2314 [label="gini = 0.0\nsamples = 2323\nvalue = [0, 0, 0, 0, 0, 0, 0, 0, 0, 0, 0, 0, 3718, 0\n0, 0, 0, 0, 0, 0, 0, 0, 0, 0, 0, 0]\nclass = 36757", fillcolor="#39c5e5ff"] ;
2 -> 2314 ;
2315 [label="City_Ho Chi Minh City <= 13.07\ngini = 0.11\nsamples = 2452\nvalue = [0, 0, 0, 191, 41, 0, 0, 0, 0, 0, 0, 0, 0, 0\n0, 0, 0, 0, 3672, 0, 0, 0, 0, 0, 0, 0]\nclass = 45932", fillcolor="#9a39e5ef"] ;
1 -> 2315 ;
2316 [label="src_ip_221.229.172.117 <= 4.91\ngini = 0.11\nsamples = 2446\nvalue = [0, 0, 0, 191, 32, 0, 0, 0, 0, 0, 0, 0, 0, 0\n0, 0, 0, 0, 3672, 0, 0, 0, 0, 0, 0, 0]\nclass = 45932", fillcolor="#9a39e5f0"] ;
2315 -> 2316 ;
2317 [label="src_ip_185.17.127.164 <= 154.45\ngini = 0.09\nsamples = 2421\nvalue = [0, 0, 0, 147, 32, 0, 0, 0, 0, 0, 0, 0, 0, 0\n0, 0, 0, 0, 3672, 0, 0, 0, 0, 0, 0, 0]\nclass = 45932", fillcolor="#9a39e5f3"] ;
2316 -> 2317 ;
2318 [label="Country_United States <= 2.09\ngini = 0.09\nsamples = 2420\nvalue = [0, 0, 0, 147, 30, 0, 0, 0, 0, 0, 0, 0, 0, 0\n0, 0, 0, 0, 3672, 0, 0, 0, 0, 0, 0, 0]\nclass = 45932", fillcolor="#9a39e5f3"] ;
2317 -> 2318 ;
2319 [label="(...)", fillcolor="#C0C0C0"] ;
2318 -> 2319 ;
2352 [label="(...)", fillcolor="#C0C0C0"] ;
2318 -> 2352 ;
2353 [label="gini = 0.0\nsamples = 1\nvalue = [0, 0, 0, 0, 2, 0, 0, 0, 0, 0, 0, 0, 0, 0\n0, 0, 0, 0, 0, 0, 0, 0, 0, 0, 0, 0]\nclass = 2223", fillcolor="#ace539ff"] ;
2317 -> 2353 ;
2354 [label="gini = 0.0\nsamples = 25\nvalue = [0, 0, 0, 44, 0, 0, 0, 0, 0, 0, 0, 0, 0, 0\n0, 0, 0, 0, 0, 0, 0, 0, 0, 0, 0, 0]\nclass = 2222", fillcolor="#d4e539ff"] ;
2316 -> 2354 ;
2355 [label="gini = 0.0\nsamples = 6\nvalue = [0, 0, 0, 0, 9, 0, 0, 0, 0, 0, 0, 0, 0, 0\n0, 0, 0, 0, 0, 0, 0, 0, 0, 0, 0, 0]\nclass = 2223", fillcolor="#ace539ff"] ;
2315 -> 2355 ;
2356 [label="sensor_ip-10-0-54-129 <= 9.12\ngini = 0.0\nsamples = 2344\nvalue = [0, 0, 0, 0, 4, 0, 0, 0, 0, 0, 0, 0, 0, 3752\n0, 0, 0, 0, 0, 0, 0, 0, 0, 0, 0, 0]\nclass = 39652", fillcolor="#399de5ff"] ;
0 -> 2356 [labeldistance=2.5, labelangle=45, headlabel="False"] ;
2357 [label="sensor_ip-10-0-42-87 <= 2.33\ngini = 0.0\nsamples = 2343\nvalue = [0, 0, 0, 0, 3, 0, 0, 0, 0, 0, 0, 0, 0, 3752\n0, 0, 0, 0, 0, 0, 0, 0, 0, 0, 0, 0]\nclass = 39652", fillcolor="#399de5ff"] ;
2356 -> 2357 ;
2358 [label="gini = 0.0\nsamples = 2\nvalue = [0, 0, 0, 0, 3, 0, 0, 0, 0, 0, 0, 0, 0, 0\n0, 0, 0, 0, 0, 0, 0, 0, 0, 0, 0, 0]\nclass = 2223", fillcolor="#ace539ff"] ;
2357 -> 2358 ;
2359 [label="gini = 0.0\nsamples = 2341\nvalue = [0, 0, 0, 0, 0, 0, 0, 0, 0, 0, 0, 0, 0, 3752\n0, 0, 0, 0, 0, 0, 0, 0, 0, 0, 0, 0]\nclass = 39652", fillcolor="#399de5ff"] ;
2357 -> 2359 ;
2360 [label="gini = 0.0\nsamples = 1\nvalue = [0, 0, 0, 0, 1, 0, 0, 0, 0, 0, 0, 0, 0, 0\n0, 0, 0, 0, 0, 0, 0, 0, 0, 0, 0, 0]\nclass = 2223", fillcolor="#ace539ff"] ;
2356 -> 2360 ;
}